{
  "net.0.weight": [
    [
      -0.05321039259433746,
      -0.16543035209178925
    ],
    [
      -0.3662149906158447,
      -0.3281139135360718
    ],
    [
      -0.059189870953559875,
      0.07217669486999512
    ],
    [
      0.4315463602542877,
      0.4244552552700043
    ],
    [
      0.29875677824020386,
      -0.3922756016254425
    ],
    [
      -0.4557367265224457,
      -0.0016847947845235467
    ],
    [
      -0.27870243787765503,
      0.381621778011322
    ],
    [
      -0.4184221029281616,
      -0.08752714097499847
    ],
    [
      0.3255569338798523,
      -0.43404421210289
    ],
    [
      -0.0867404043674469,
      0.40119218826293945
    ],
    [
      -0.1558743268251419,
      -0.4193044602870941
    ],
    [
      0.36955833435058594,
      -0.4499781131744385
    ],
    [
      -0.1157781258225441,
      0.1908782720565796
    ],
    [
      0.02230144664645195,
      -0.0844268947839737
    ],
    [
      0.07773854583501816,
      0.19383648037910461
    ],
    [
      -0.34240129590034485,
      -0.26819491386413574
    ],
    [
      -0.16884154081344604,
      0.30266350507736206
    ],
    [
      -0.34321582317352295,
      -0.4242834746837616
    ],
    [
      0.3972994387149811,
      0.035818975418806076
    ],
    [
      0.04461682587862015,
      0.17883850634098053
    ],
    [
      -0.20793931186199188,
      -0.14081455767154694
    ],
    [
      -0.16311389207839966,
      -0.45948195457458496
    ],
    [
      0.16457273066043854,
      -0.17387467622756958
    ],
    [
      -0.24923130869865417,
      -0.013314252719283104
    ],
    [
      -0.25777891278266907,
      -0.49294963479042053
    ],
    [
      0.14919066429138184,
      -0.3915935754776001
    ],
    [
      0.3050887882709503,
      0.12106824666261673
    ],
    [
      -0.10877840220928192,
      -0.1692867875099182
    ],
    [
      0.21989786624908447,
      0.37177225947380066
    ],
    [
      -0.26025155186653137,
      -0.37830251455307007
    ],
    [
      -0.47949913144111633,
      -0.3868084251880646
    ],
    [
      -0.3891966938972473,
      -0.3216154873371124
    ],
    [
      0.1607963591814041,
      -0.2310713678598404
    ],
    [
      -0.06014162674546242,
      0.35658976435661316
    ],
    [
      0.24695917963981628,
      -0.007172421086579561
    ],
    [
      0.11475497484207153,
      0.05159115791320801
    ],
    [
      -0.0271969735622406,
      0.02049209177494049
    ],
    [
      -0.013710970990359783,
      -0.23174327611923218
    ],
    [
      -0.2542673945426941,
      0.4853174090385437
    ],
    [
      -0.26983723044395447,
      0.4557453691959381
    ],
    [
      0.25288739800453186,
      0.2988746762275696
    ],
    [
      -0.49691498279571533,
      -0.4622473120689392
    ],
    [
      0.4888914227485657,
      -0.1592022180557251
    ],
    [
      0.49406054615974426,
      -0.44775131344795227
    ],
    [
      -0.41862237453460693,
      0.35723036527633667
    ],
    [
      -0.15289688110351562,
      -0.15206480026245117
    ],
    [
      -0.33660203218460083,
      -0.41083815693855286
    ],
    [
      -0.23469072580337524,
      -0.2283676266670227
    ],
    [
      -0.4507403075695038,
      0.2929059565067291
    ],
    [
      0.27279961109161377,
      -0.26756027340888977
    ],
    [
      -0.04585299640893936,
      -0.09604513645172119
    ],
    [
      0.28115013241767883,
      -0.4222683012485504
    ],
    [
      -0.019701037555933,
      0.17166760563850403
    ],
    [
      -0.23762546479701996,
      0.5271480679512024
    ],
    [
      -0.29348987340927124,
      0.07914375513792038
    ],
    [
      0.19377638399600983,
      0.27125492691993713
    ],
    [
      -0.16003316640853882,
      0.46926984190940857
    ],
    [
      -0.050941284745931625,
      0.07029333710670471
    ],
    [
      -0.08237971365451813,
      0.298774391412735
    ],
    [
      -0.26656368374824524,
      -0.05294222757220268
    ],
    [
      -0.021553535014390945,
      0.37505921721458435
    ],
    [
      0.22259469330310822,
      0.10147023946046829
    ],
    [
      0.4288431704044342,
      0.04887017980217934
    ],
    [
      0.16685645282268524,
      0.07624638825654984
    ]
  ],
  "net.0.bias": [
    0.5752072930335999,
    -0.4109002351760864,
    0.5427771210670471,
    0.27487713098526,
    -0.028635134920477867,
    -0.32442811131477356,
    -0.12000627815723419,
    0.1020696610212326,
    -0.21681873500347137,
    0.4639156758785248,
    0.36189574003219604,
    -0.6174377799034119,
    -0.26510605216026306,
    -0.06100911647081375,
    0.5346790552139282,
    -0.45056989789009094,
    0.7191393375396729,
    -0.14962714910507202,
    -0.1589527726173401,
    0.5585424900054932,
    -0.45312902331352234,
    0.5764382481575012,
    0.23101511597633362,
    -0.4120604395866394,
    -0.32589399814605713,
    -0.08830992877483368,
    -0.09891258925199509,
    0.2083854228258133,
    0.23244395852088928,
    0.6862025856971741,
    0.024469567462801933,
    0.2751882076263428,
    -0.26454296708106995,
    0.13125751912593842,
    -0.04363622888922691,
    0.35766124725341797,
    0.33553025126457214,
    -0.20194603502750397,
    -0.5406889319419861,
    0.0019059765618294477,
    0.3169187009334564,
    -0.5471196174621582,
    0.22748327255249023,
    0.28291693329811096,
    0.02639506570994854,
    0.20402470231056213,
    0.5201983451843262,
    0.06229333207011223,
    -0.11724003404378891,
    -0.5847183465957642,
    -0.3568204641342163,
    0.6014059782028198,
    0.6849271059036255,
    -0.20953375101089478,
    0.18662849068641663,
    0.1288219839334488,
    0.2520461976528168,
    -0.36094096302986145,
    -0.28726011514663696,
    0.017000121995806694,
    -0.009197331964969635,
    0.2654202878475189,
    0.0950232520699501,
    -0.38424667716026306
  ],
  "net.2.weight": [
    [
      -0.017262402921915054,
      -0.0030520549044013023,
      0.04013780504465103,
      0.0357956662774086,
      -0.03848584368824959,
      -0.008430017158389091,
      0.02128046192228794,
      -0.03106275573372841,
      0.030636796727776527,
      -0.014918896369636059,
      -0.03206757456064224,
      0.0292691420763731,
      -0.03831157460808754,
      -0.020676685497164726,
      -0.029176875948905945,
      0.022675639018416405,
      -0.03871633857488632,
      0.020130909979343414,
      -0.023554885759949684,
      -0.008122171275317669,
      0.02908564917743206,
      0.0099996542558074,
      -0.025937270373106003,
      0.015444162301719189,
      0.03965924680233002,
      0.022185148671269417,
      -0.0033271098509430885,
      -0.015241289511322975,
      -0.03009030781686306,
      0.022861402481794357,
      -0.024697143584489822,
      -0.02647225372493267,
      0.0518021397292614,
      -0.024427693337202072,
      -0.022829150781035423,
      -0.02134642004966736,
      -0.00183821190148592,
      -0.039635609835386276,
      0.0016144763212651014,
      -0.019402146339416504,
      -0.004255800042301416,
      -0.009273954667150974,
      -0.00236621149815619,
      0.018302947282791138,
      0.00500881765037775,
      0.023227283731102943,
      -0.029046038165688515,
      -0.0021823288407176733,
      -0.043401747941970825,
      -0.024883821606636047,
      0.015997640788555145,
      0.0013340869918465614,
      -0.002106254454702139,
      -0.018538018688559532,
      0.024446068331599236,
      -0.02689788118004799,
      0.04016072675585747,
      -0.02549276314675808,
      0.013001068495213985,
      0.026430319994688034,
      0.012051833793520927,
      -0.02926919050514698,
      0.030861973762512207,
      0.027762871235609055
    ],
    [
      0.0053502279333770275,
      -0.035707034170627594,
      -0.060290079563856125,
      0.03711620718240738,
      0.015336167998611927,
      -0.01857607625424862,
      0.016702741384506226,
      -0.0037335967645049095,
      0.025761278346180916,
      -0.006014653481543064,
      0.00888064131140709,
      0.02380872331559658,
      -0.04369954764842987,
      0.06195702776312828,
      0.05061943084001541,
      0.019833259284496307,
      0.03256788104772568,
      -0.012565670534968376,
      -0.002533194376155734,
      0.02475631609559059,
      -0.012132221832871437,
      -0.010288534685969353,
      -0.009859221987426281,
      0.03900101035833359,
      0.00487339636310935,
      0.02164815366268158,
      -0.021386466920375824,
      0.01512989029288292,
      0.009122583083808422,
      0.0009485045447945595,
      0.016883768141269684,
      -0.03670158609747887,
      -0.021201806142926216,
      -0.016942037269473076,
      0.0033941902220249176,
      -0.014326715841889381,
      0.0352168008685112,
      -0.008788091130554676,
      0.04369058087468147,
      -0.038025423884391785,
      0.015329374000430107,
      0.00986428838223219,
      0.02262367308139801,
      0.05509308725595474,
      0.005571358371526003,
      -0.02230300009250641,
      0.012281143106520176,
      0.0481642447412014,
      -0.04657701775431633,
      0.02886243164539337,
      0.02471316233277321,
      0.025547711178660393,
      0.01778271608054638,
      -0.033432550728321075,
      0.026290051639080048,
      0.011000172235071659,
      -0.029279077425599098,
      -0.05835479125380516,
      0.026938624680042267,
      -0.019818192347884178,
      -0.02024523913860321,
      0.01644858717918396,
      0.01116811204701662,
      0.032367460429668427
    ],
    [
      -0.013071347959339619,
      -0.011651515029370785,
      0.044256627559661865,
      0.0344574898481369,
      0.002116755349561572,
      -0.02600984275341034,
      -0.01235303282737732,
      0.01661130040884018,
      -0.00607326440513134,
      0.03239401802420616,
      -0.031834859400987625,
      -0.009329045191407204,
      -0.025699244812130928,
      -0.002304394030943513,
      -0.023661524057388306,
      -0.003011463675647974,
      0.007736422587186098,
      0.03733564540743828,
      -0.0067937662824988365,
      0.004731392953544855,
      0.03353312984108925,
      -0.023885762318968773,
      -0.011096110567450523,
      0.020613551139831543,
      -0.0315915010869503,
      -0.01466733030974865,
      0.021083848550915718,
      0.028476808220148087,
      -0.027229776605963707,
      0.034294649958610535,
      0.01692189648747444,
      -0.020902778953313828,
      -0.03825286030769348,
      -0.04381793737411499,
      -0.030811326578259468,
      0.008338060230016708,
      0.01549466047435999,
      0.023454945534467697,
      0.01734171435236931,
      0.0011006643762812018,
      0.03654564172029495,
      0.031935449689626694,
      -0.031419962644577026,
      -0.025339635089039803,
      -0.005929000675678253,
      0.02253270335495472,
      -0.04884935915470123,
      -0.023806897923350334,
      0.0486336387693882,
      -0.023949112743139267,
      0.0034239476080983877,
      -0.002742765937000513,
      -0.032198794186115265,
      -0.02462673746049404,
      -0.0037610384169965982,
      0.0018041320145130157,
      0.01036881748586893,
      0.017138255760073662,
      -0.01992223970592022,
      0.03509754687547684,
      -0.022619888186454773,
      -0.04757528752088547,
      0.033978741616010666,
      -0.03874300792813301
    ],
    [
      -0.0027231883723288774,
      -0.031874705106019974,
      -0.02284364588558674,
      0.018538039177656174,
      -0.011143738403916359,
      -0.01716749742627144,
      0.01941789872944355,
      0.028439883142709732,
      -0.007563952822238207,
      0.017541654407978058,
      -0.03257771581411362,
      0.008509322069585323,
      0.02123032882809639,
      0.03402326628565788,
      0.006079379003494978,
      -0.0419376902282238,
      0.0224972665309906,
      -0.015135235153138638,
      0.027526017278432846,
      -0.015238854102790356,
      0.004439853597432375,
      0.011545004323124886,
      0.0035226205363869667,
      -0.041080228984355927,
      -0.008704266510903835,
      0.00640874681994319,
      0.017129534855484962,
      0.008279950357973576,
      -0.010717996396124363,
      -0.021755121648311615,
      -0.045742928981781006,
      -0.028606271371245384,
      -0.005537152756005526,
      0.019673699513077736,
      0.05430072173476219,
      0.0057071782648563385,
      0.018932683393359184,
      0.054537221789360046,
      -0.021789243444800377,
      0.00829984713345766,
      -0.023121926933526993,
      -0.021440258249640465,
      0.029943061992526054,
      0.010747851803898811,
      0.031289104372262955,
      0.0074073150753974915,
      0.012337887659668922,
      -0.0024616210721433163,
      -0.0086109833791852,
      0.024484658613801003,
      0.016430791467428207,
      -0.011900661513209343,
      0.0004675659874919802,
      0.027298012748360634,
      -0.015537532046437263,
      -0.0059448122046887875,
      -0.036530930548906326,
      -0.002114813309162855,
      0.0162064116448164,
      0.02067154459655285,
      0.024768434464931488,
      -0.051895447075366974,
      -0.01585838571190834,
      -0.0021399264223873615
    ],
    [
      0.008915736339986324,
      -0.024575456976890564,
      -0.05236349627375603,
      -0.009203826077282429,
      0.0063703483901917934,
      -0.006348454859107733,
      -0.03277594968676567,
      0.005867179483175278,
      0.03223758190870285,
      0.010715015232563019,
      -0.030102239921689034,
      0.05573870614171028,
      -0.02933012880384922,
      0.027616335079073906,
      0.02181478776037693,
      0.044283442199230194,
      0.035654738545417786,
      0.04337359219789505,
      0.01984908990561962,
      -0.04190497100353241,
      -0.0008144968305714428,
      0.010491658002138138,
      -0.03591674193739891,
      0.014842752367258072,
      0.014518070966005325,
      -0.024369925260543823,
      -0.0477142333984375,
      0.012606032192707062,
      0.0198415108025074,
      0.053898874670267105,
      -0.011105922982096672,
      -0.03287503868341446,
      -0.02374417893588543,
      0.01974744163453579,
      -0.01243600994348526,
      -0.008288854733109474,
      0.012533752247691154,
      0.034974124282598495,
      0.023176124319434166,
      0.030638422816991806,
      0.020937079563736916,
      0.008599315769970417,
      -0.01075152400881052,
      0.025794724002480507,
      -0.02130722999572754,
      0.013154401443898678,
      0.0033004118595272303,
      -0.019386371597647667,
      -0.006856366526335478,
      0.008838048204779625,
      0.009513954631984234,
      0.007466586772352457,
      0.010177606716752052,
      -0.0049193245358765125,
      -0.014018049463629723,
      -0.044722843915224075,
      -0.008004964329302311,
      -0.051576320081949234,
      -0.039967820048332214,
      -0.016292916610836983,
      0.01709284633398056,
      -0.04330078512430191,
      0.015874572098255157,
      0.003492454532533884
    ],
    [
      0.008682619780302048,
      -0.03616609424352646,
      -0.01483509223908186,
      0.02635769546031952,
      -0.022481128573417664,
      0.01308873388916254,
      0.02371537871658802,
      0.02272031456232071,
      0.013714494183659554,
      0.041015446186065674,
      -0.05249849706888199,
      0.041616763919591904,
      -0.01519396435469389,
      0.03746304661035538,
      -0.005475323647260666,
      -0.014986297115683556,
      0.01273831445723772,
      -0.03569497540593147,
      0.028174173086881638,
      0.018097734078764915,
      0.019052432850003242,
      0.0048155286349356174,
      0.04184172302484512,
      -0.021571211516857147,
      0.03421316295862198,
      -0.022620806470513344,
      0.04429775848984718,
      -0.043125446885824203,
      -0.04854009672999382,
      -0.03284843638539314,
      0.017708757892251015,
      -0.04634687677025795,
      -0.021290192380547523,
      0.020096976310014725,
      0.009807194583117962,
      -0.010494592599570751,
      0.0014354089507833123,
      -0.013951487839221954,
      -0.03509810194373131,
      -0.01859930343925953,
      0.0308621097356081,
      -0.018059512600302696,
      0.023264484480023384,
      -0.007933460175991058,
      0.042889710515737534,
      0.019512835890054703,
      0.022339660674333572,
      0.017163069918751717,
      -0.030277125537395477,
      -0.02193628065288067,
      0.04945080354809761,
      -0.005585449282079935,
      -0.012017217464745045,
      -0.01490792166441679,
      -0.008721706457436085,
      0.036075033247470856,
      -0.004369657952338457,
      -0.010084392502903938,
      0.024371175095438957,
      0.006022042129188776,
      -0.0036109075881540775,
      -0.011159529909491539,
      -0.01778089627623558,
      -0.01936391554772854
    ],
    [
      -0.032094039022922516,
      -0.0037457854487001896,
      -0.022389041259884834,
      0.030748577788472176,
      0.028608454391360283,
      -0.026713550090789795,
      -0.04272659868001938,
      -0.026211850345134735,
      -0.02079731784760952,
      0.0006494190311059356,
      -0.017892049625515938,
      0.026641005650162697,
      0.018145496025681496,
      0.013174355030059814,
      -0.034830741584300995,
      0.012911844067275524,
      -0.03261465206742287,
      0.005028441548347473,
      -0.0003323450800962746,
      0.015211586840450764,
      0.025692248716950417,
      0.01715274713933468,
      0.010244853794574738,
      0.04802779480814934,
      -0.01531803235411644,
      -0.02563733421266079,
      -0.008121454156935215,
      -0.0004333351389504969,
      -0.010222801938652992,
      0.0115218386054039,
      0.039592768996953964,
      0.019154395908117294,
      0.016965776681900024,
      -0.03427434340119362,
      -0.005679818335920572,
      -0.0142692094668746,
      -0.02146754413843155,
      0.008005659095942974,
      -0.037337515503168106,
      0.03239663317799568,
      -0.022242100909352303,
      0.010588050819933414,
      0.015435690991580486,
      -0.024966266006231308,
      0.006318326573818922,
      0.012526008300483227,
      0.002072966657578945,
      -0.0348518081009388,
      -0.016504477709531784,
      -0.019246643409132957,
      0.017657633870840073,
      -0.014573848806321621,
      0.011527596041560173,
      -0.0025154545437544584,
      -0.059647079557180405,
      0.009714777581393719,
      -0.04790974035859108,
      -0.04963431507349014,
      0.002358859172090888,
      0.0073320032097399235,
      0.037356290966272354,
      -0.02816716395318508,
      0.030484244227409363,
      0.00835430808365345
    ],
    [
      0.023507725447416306,
      0.014302155934274197,
      0.017205500975251198,
      -0.03221321851015091,
      -0.019639302045106888,
      -0.016664473339915276,
      0.030086016282439232,
      -0.012009716592729092,
      -0.0060567003674805164,
      -0.0014919027453288436,
      -0.010390005074441433,
      -0.01738676056265831,
      -0.013138598762452602,
      0.006999027915298939,
      -0.0017195806140080094,
      0.022550780326128006,
      -0.009135524742305279,
      0.025258522480726242,
      -0.02692563086748123,
      -0.0030156602151691914,
      0.020592963322997093,
      0.002061595907434821,
      0.017057999968528748,
      0.013658681884407997,
      -0.04435698688030243,
      -0.031434185802936554,
      -0.012509586289525032,
      -0.03197823837399483,
      -0.0037819864228367805,
      -0.033783383667469025,
      0.006743914447724819,
      0.013050509616732597,
      0.019894909113645554,
      -0.035740360617637634,
      0.01604713872075081,
      -0.011789348907768726,
      -0.042216699570417404,
      0.003567491425201297,
      0.014352293685078621,
      -0.01675359718501568,
      -5.091181446914561e-05,
      0.030958060175180435,
      0.027665086090564728,
      -0.007858091965317726,
      0.030045051127672195,
      0.03427732363343239,
      0.0005420355009846389,
      0.0019063155632466078,
      0.004385130014270544,
      -0.019333429634571075,
      -0.01800963282585144,
      0.00165184261277318,
      -0.027038583531975746,
      -0.01955529674887657,
      -0.024499008432030678,
      -0.012541812844574451,
      0.020717671141028404,
      0.024679439142346382,
      -0.04622998833656311,
      -0.011824182234704494,
      -0.016036266461014748,
      -0.005863563623279333,
      0.026800813153386116,
      0.008803634904325008
    ],
    [
      -0.04463253170251846,
      -0.0031035374850034714,
      -0.02235627919435501,
      0.001558251096867025,
      0.04908491298556328,
      -0.027225129306316376,
      -0.02877727709710598,
      -0.0123544717207551,
      0.021742098033428192,
      0.005088236648589373,
      0.007586043328046799,
      0.006805715151131153,
      0.017967982217669487,
      0.04046694189310074,
      -0.02959585003554821,
      -0.009026645682752132,
      0.028049129992723465,
      0.015851717442274094,
      -0.010435125790536404,
      -0.01008652150630951,
      -0.007376091554760933,
      -0.03454126790165901,
      -0.032322321087121964,
      0.019633259624242783,
      0.025431647896766663,
      -0.036516718566417694,
      -0.01028966810554266,
      0.011909477412700653,
      0.020461954176425934,
      -0.02291809767484665,
      -0.038484543561935425,
      -0.001976289553567767,
      -0.021436961367726326,
      -0.00931704044342041,
      -0.00019766055629588664,
      0.019916776567697525,
      -0.010438555851578712,
      -0.008368275128304958,
      0.00011174191604368389,
      0.0008686292567290366,
      -0.011392480693757534,
      -0.000758750771638006,
      0.02130783535540104,
      0.0020495073404163122,
      -0.014707779511809349,
      0.009375488385558128,
      0.03261885419487953,
      0.00018117381841875613,
      0.007040839176625013,
      0.04264887049794197,
      0.025464210659265518,
      -0.026286853477358818,
      0.03125077486038208,
      -0.013294437900185585,
      0.024563051760196686,
      -0.013507667928934097,
      0.014373344369232655,
      -0.0038418022450059652,
      0.013748984783887863,
      -0.0073657045140862465,
      -0.021761124953627586,
      0.007853725925087929,
      0.002775917761027813,
      0.00029306430951692164
    ],
    [
      -0.002468244405463338,
      -0.03944401815533638,
      -0.011091106571257114,
      0.023824360221624374,
      0.040737174451351166,
      -0.007515273056924343,
      -0.019415680319070816,
      -0.036056071519851685,
      -0.04822723567485809,
      0.016051527112722397,
      0.03152518346905708,
      -0.03401317074894905,
      0.030663684010505676,
      -0.04847009852528572,
      0.052634548395872116,
      -0.024429162964224815,
      -0.016389459371566772,
      -0.017940571531653404,
      -0.0342412032186985,
      -0.025917137041687965,
      0.03779607638716698,
      -0.023091373965144157,
      0.022814104333519936,
      0.02055894210934639,
      -0.01368788257241249,
      0.011919640935957432,
      -0.028443343937397003,
      0.028983334079384804,
      -0.0006539959576912224,
      -0.005473630968481302,
      0.022603506222367287,
      -0.03479707986116409,
      0.04183251038193703,
      -0.01787751354277134,
      -0.007802774664014578,
      0.022719789296388626,
      0.008620292879641056,
      0.03959883376955986,
      -0.0031071281991899014,
      0.02683107741177082,
      -0.036744650453329086,
      0.05783986672759056,
      0.029612112790346146,
      0.016197780147194862,
      0.03705127164721489,
      0.03695935010910034,
      0.05439073592424393,
      -0.046952445060014725,
      -0.0008979644044302404,
      -0.031201934441924095,
      -0.052354663610458374,
      -0.04147133603692055,
      -0.021142534911632538,
      -0.01612473465502262,
      0.03288625180721283,
      0.0040571982972323895,
      0.009487911127507687,
      -0.015786075964570045,
      -0.02256086654961109,
      -0.016693977639079094,
      -0.013935154303908348,
      -0.011741366237401962,
      0.04937611147761345,
      -0.0401623360812664
    ],
    [
      0.012207197025418282,
      0.03740072622895241,
      0.03942820802330971,
      0.02698415331542492,
      -0.023811830207705498,
      0.019830970093607903,
      0.025631606578826904,
      0.004008479416370392,
      -0.0027614592108875513,
      -0.01959054358303547,
      0.0031582233496010303,
      -0.0090621467679739,
      -0.025736141949892044,
      -0.02168344520032406,
      0.01950807496905327,
      -0.03559734672307968,
      -0.04060875251889229,
      0.005814890842884779,
      -0.03915691003203392,
      0.03243086114525795,
      -0.03296951949596405,
      -0.03284015506505966,
      0.01445014588534832,
      -0.02267472632229328,
      0.002657644683495164,
      0.031039753928780556,
      0.013098458759486675,
      -0.04396601393818855,
      -0.05511791259050369,
      0.017575107514858246,
      0.01092398352921009,
      0.03372368961572647,
      0.03193694353103638,
      0.014823749661445618,
      -0.0021710332948714495,
      0.03156787157058716,
      0.003429521806538105,
      -0.04857402294874191,
      0.01257119607180357,
      -0.04079708084464073,
      -0.037363745272159576,
      0.014995891600847244,
      0.018156474456191063,
      0.02876584418118,
      -0.05051884427666664,
      0.012222323566675186,
      -0.01669483445584774,
      0.03010995127260685,
      -0.055575914680957794,
      -0.01010544691234827,
      0.028430543839931488,
      0.007086958270519972,
      0.015065336599946022,
      -0.039104804396629333,
      0.0040994128212332726,
      -0.016640854999423027,
      -0.01511903665959835,
      0.02448548749089241,
      0.03769907355308533,
      -0.044547099620103836,
      -0.021303115412592888,
      -0.009873599745333195,
      0.03189288452267647,
      -0.028822429478168488
    ],
    [
      0.036976806819438934,
      -0.01399727538228035,
      0.012510979548096657,
      -0.03889269009232521,
      -0.024704881012439728,
      -0.0034162779338657856,
      0.02784668281674385,
      -0.0063507454469799995,
      -0.0241608377546072,
      -0.016496242955327034,
      -0.020920095965266228,
      -0.02316451445221901,
      0.02003464102745056,
      0.03292786702513695,
      0.020303571596741676,
      -0.034010183066129684,
      0.02631431072950363,
      0.00797435361891985,
      -0.007908325642347336,
      0.027739277109503746,
      -0.027816347777843475,
      -0.039358027279376984,
      -0.005623373202979565,
      0.0004867978277616203,
      -0.03574514016509056,
      0.03385400399565697,
      -0.005392337683588266,
      0.016907043755054474,
      -0.031168943271040916,
      -0.023181341588497162,
      0.011797351762652397,
      -0.010877260938286781,
      -0.023730775341391563,
      0.027029534801840782,
      0.023872874677181244,
      0.03980804607272148,
      -0.03506164625287056,
      -0.031765617430210114,
      -0.032070014625787735,
      -0.01996294967830181,
      -0.00497368723154068,
      0.019086796790361404,
      0.02457786723971367,
      -0.004252811893820763,
      0.01739099621772766,
      -0.024052277207374573,
      0.02614719606935978,
      0.027633529156446457,
      0.008949377574026585,
      0.02292524091899395,
      0.020914694294333458,
      -0.02925695665180683,
      0.03254568204283714,
      0.018115347251296043,
      0.007593217771500349,
      0.0014536104863509536,
      -0.05349394306540489,
      0.02962145023047924,
      0.020358778536319733,
      -0.013755525462329388,
      -0.03740040585398674,
      -0.03255331143736839,
      -0.01257416047155857,
      -0.03000284731388092
    ],
    [
      -0.010434022173285484,
      -0.0009675624314695597,
      0.02416280284523964,
      0.04847317561507225,
      -0.006648357026278973,
      0.020047305151820183,
      0.02297119051218033,
      -0.03579043596982956,
      0.04353198781609535,
      -0.03658595681190491,
      0.01950153149664402,
      0.027488240972161293,
      0.01093751098960638,
      -0.03985555097460747,
      -0.018604177981615067,
      0.02702987566590309,
      -0.02474915236234665,
      0.024737318977713585,
      -0.04736123979091644,
      0.03002876043319702,
      0.022626586258411407,
      0.024553019553422928,
      -0.020533226430416107,
      -0.0024158796295523643,
      0.001115710474550724,
      0.02501560002565384,
      0.0073595065623521805,
      -0.02343791164457798,
      -0.012632893398404121,
      0.03384719043970108,
      0.02508128620684147,
      -0.0007258105324581265,
      0.03243807330727577,
      -0.01930948719382286,
      -0.004400540608912706,
      0.0471995510160923,
      -0.0031015146523714066,
      -0.04687173664569855,
      -0.0014207533095031977,
      -0.033842090517282486,
      0.017923058941960335,
      0.04670250415802002,
      -0.0473177395761013,
      0.03532012552022934,
      0.00524867232888937,
      0.0343734510242939,
      -0.04391102492809296,
      -0.058076851069927216,
      -0.02549411728978157,
      -0.04133174568414688,
      0.017085695639252663,
      0.01718868687748909,
      -0.03214850649237633,
      -0.0025992009323090315,
      0.00576425064355135,
      0.016979269683361053,
      -0.037686772644519806,
      -0.03452381491661072,
      -0.009904892183840275,
      0.0341956652700901,
      -0.01742815226316452,
      -0.052827250212430954,
      0.04009626805782318,
      -0.04263421148061752
    ],
    [
      0.0031375812832266092,
      0.011178514920175076,
      -0.017543790861964226,
      -0.011421587318181992,
      0.046310991048812866,
      0.006431193090975285,
      -0.06507907062768936,
      0.017627088353037834,
      -0.014185165986418724,
      -0.0012050019577145576,
      -0.00010841176117537543,
      -0.01850014738738537,
      0.042995795607566833,
      0.0108590517193079,
      -0.049846041947603226,
      -0.04653852805495262,
      -0.016040634363889694,
      0.026370959356427193,
      0.02404455840587616,
      0.0014962493441998959,
      0.03351633623242378,
      -0.03176385536789894,
      0.010709233582019806,
      0.0069965762086212635,
      -0.050589419901371,
      -0.004352130927145481,
      0.003061361378058791,
      -0.04890284314751625,
      -0.0591040775179863,
      -0.03479018434882164,
      -0.010568847879767418,
      -0.0122348852455616,
      -0.003966062795370817,
      0.0017067173030227423,
      0.016669072210788727,
      0.024296240881085396,
      0.02413812465965748,
      -0.01450669951736927,
      -0.045824259519577026,
      0.04904252663254738,
      -0.024454733356833458,
      -0.04494195803999901,
      0.034551214426755905,
      0.05803198367357254,
      0.02191336825489998,
      0.022819727659225464,
      -0.025869807228446007,
      0.008916488848626614,
      -0.05954023823142052,
      -0.020848052576184273,
      -0.004265922121703625,
      -0.007800935301929712,
      -0.007359473034739494,
      0.040459126234054565,
      -0.039094965904951096,
      0.03878125920891762,
      0.006322340574115515,
      0.011434952728450298,
      -0.003411992685869336,
      -0.012310616672039032,
      -0.016915451735258102,
      -0.04798635467886925,
      -0.024890517815947533,
      -0.05216303840279579
    ],
    [
      -0.026232024654746056,
      -0.03412897139787674,
      0.015570559538900852,
      0.01614679954946041,
      -0.018811801448464394,
      0.04594378545880318,
      -0.01316912192851305,
      0.026866646483540535,
      0.02616850845515728,
      -0.02567404694855213,
      0.019423099234700203,
      0.02483655884861946,
      0.05276927351951599,
      -0.013446209020912647,
      -0.01377869863063097,
      0.011234491132199764,
      0.005755482241511345,
      -0.018123643472790718,
      0.03437087684869766,
      0.034450463950634,
      -0.019796546548604965,
      -0.004961533471941948,
      -0.021713081747293472,
      0.016698254272341728,
      -0.0016080092173069715,
      0.031014880165457726,
      0.01653549261391163,
      -0.019659599289298058,
      -0.017578035593032837,
      0.02632131800055504,
      0.011399881914258003,
      -0.03474859520792961,
      -0.03255617991089821,
      -0.02830156870186329,
      -0.027365876361727715,
      -0.018493490293622017,
      0.0339062325656414,
      -0.03483910486102104,
      0.022441638633608818,
      0.0498136430978775,
      0.019966699182987213,
      -0.010019637644290924,
      -0.02643364667892456,
      -0.04770589619874954,
      0.0014909973833709955,
      -0.022076992318034172,
      -0.0001252869114978239,
      -0.009724867530167103,
      0.009627877734601498,
      0.025977957993745804,
      -0.005820183083415031,
      0.01638718880712986,
      -0.04041260480880737,
      0.002184272510930896,
      -0.019438771530985832,
      0.005617975257337093,
      -0.004590904805809259,
      -0.010660210624337196,
      -0.04036061838269234,
      0.01790875755250454,
      -0.008359105326235294,
      0.024177556857466698,
      -0.027945447713136673,
      0.02871713601052761
    ],
    [
      -0.030775703489780426,
      -0.003884143428876996,
      0.014652680605649948,
      0.02322652004659176,
      -0.005075729452073574,
      -0.023765722289681435,
      -0.008952764794230461,
      0.03251655772328377,
      0.015222573652863503,
      -0.031136464327573776,
      0.031268324702978134,
      -0.00529780238866806,
      0.019946370273828506,
      -0.03732845559716225,
      -0.0029041445814073086,
      -0.003174553858116269,
      -0.013068711385130882,
      -0.007764055393636227,
      0.024018285796046257,
      -0.03835311904549599,
      -0.00561595568433404,
      0.026207871735095978,
      0.034602079540491104,
      -0.007689570542424917,
      -0.05467956140637398,
      -0.00861552357673645,
      -0.029558438807725906,
      0.011705934070050716,
      0.028246788308024406,
      -0.027507441118359566,
      -0.029021237045526505,
      -0.014489998109638691,
      0.0007877436000853777,
      -0.003153178608044982,
      -0.01794723980128765,
      0.011532395146787167,
      0.024108964949846268,
      0.019747626036405563,
      -0.028451180085539818,
      -0.012950821779668331,
      0.04278460517525673,
      0.0008624608162790537,
      -0.0016148252179846168,
      -0.0151339927688241,
      0.02871914580464363,
      -0.0067855422385036945,
      -0.03910617157816887,
      -0.0019458387978374958,
      -0.030031461268663406,
      -0.010424872860312462,
      -0.018417490646243095,
      -0.007993455976247787,
      -0.0165642611682415,
      -0.01700584404170513,
      -0.040911976248025894,
      0.0005855891504324973,
      -0.002895813900977373,
      0.03157944232225418,
      -0.007102890405803919,
      -0.05786927416920662,
      0.010580945760011673,
      -0.021059801802039146,
      -0.02261023223400116,
      0.007736618164926767
    ],
    [
      -0.036510370671749115,
      0.01684851013123989,
      0.04593899846076965,
      0.011817717924714088,
      -0.03453647717833519,
      0.02157874032855034,
      0.020449627190828323,
      -0.014515356160700321,
      0.005907930433750153,
      -0.02052430622279644,
      0.07250657677650452,
      0.0025531689170747995,
      0.003295600414276123,
      -0.02723110467195511,
      -0.006943322252482176,
      -0.016481945291161537,
      -0.005661052651703358,
      0.022422926500439644,
      -0.012626023963093758,
      0.03330431133508682,
      0.009477457031607628,
      0.04519214853644371,
      -0.045206960290670395,
      -0.031835995614528656,
      -0.04580122232437134,
      0.00386734283529222,
      0.008395464159548283,
      -0.0016554248286411166,
      0.03580581024289131,
      -0.007485019043087959,
      0.042846016585826874,
      0.03033699095249176,
      0.017880652099847794,
      -0.03636154532432556,
      0.0038488786667585373,
      0.006805956829339266,
      0.017515286803245544,
      0.01339227706193924,
      0.03199343383312225,
      -0.020961709320545197,
      0.011261849664151669,
      0.054570119827985764,
      -0.005827397108078003,
      -0.0034914480056613684,
      0.04314736649394035,
      0.013154328800737858,
      -0.01966693066060543,
      -0.03401155769824982,
      -0.02604161761701107,
      -0.007353831548243761,
      0.016685612499713898,
      0.03970525413751602,
      0.03494485095143318,
      -0.004397754557430744,
      -0.009843451902270317,
      0.027757614850997925,
      -0.03551413118839264,
      0.03740563616156578,
      -0.050380315631628036,
      -0.04416079819202423,
      -0.02549138106405735,
      -0.00271191680803895,
      0.040331970900297165,
      -0.03663245961070061
    ],
    [
      -0.013895057141780853,
      0.0322406031191349,
      -0.020581955090165138,
      0.00117000553291291,
      0.011098271235823631,
      0.046663664281368256,
      -0.009632152505218983,
      -0.020159831270575523,
      -0.033903226256370544,
      0.00489586079493165,
      -0.0295109823346138,
      -0.020041560754179955,
      0.026383772492408752,
      0.023415474221110344,
      -0.02130030281841755,
      -0.034897614270448685,
      -0.008309483528137207,
      0.031214812770485878,
      -0.0186881385743618,
      0.0055757807567715645,
      -0.007945814169943333,
      0.01753968931734562,
      0.04372614994645119,
      -0.03842274472117424,
      -0.02562166564166546,
      -0.022607464343309402,
      -0.02727464959025383,
      -0.024318518117070198,
      0.0073652444407343864,
      -0.02742832340300083,
      0.036989882588386536,
      0.030403394252061844,
      0.028785178437829018,
      0.015363803133368492,
      0.00015653256559744477,
      -0.02205386944115162,
      -0.02726978436112404,
      0.0014433753676712513,
      -0.027255643159151077,
      -0.02768220752477646,
      -0.03299322724342346,
      0.0041676415130496025,
      0.011976787820458412,
      -0.043161023408174515,
      -0.018979419022798538,
      -0.021109318360686302,
      -0.007510326337069273,
      0.023331981152296066,
      0.006468800827860832,
      -0.02611088939011097,
      0.013106484897434711,
      0.030586890876293182,
      0.018987109884619713,
      0.03346193581819534,
      -0.03879798948764801,
      -0.03469989076256752,
      0.018988387659192085,
      -0.024906592443585396,
      -0.011210156604647636,
      -0.017869990319013596,
      0.004009007941931486,
      0.009450051933526993,
      0.007976088672876358,
      0.015079843811690807
    ],
    [
      -0.004375885706394911,
      -0.004450052976608276,
      -0.020510468631982803,
      -0.01162878517061472,
      -0.05593692883849144,
      -0.047119542956352234,
      0.035721659660339355,
      -0.03050169162452221,
      0.022069307044148445,
      0.006364555098116398,
      -0.060285534709692,
      0.001124570146203041,
      0.030187496915459633,
      -0.010840361006557941,
      -0.020198076963424683,
      -0.006854739040136337,
      0.013451735489070415,
      0.021220551803708076,
      0.006193133071064949,
      -0.05601099878549576,
      0.030658891424536705,
      0.029104413464665413,
      -0.008940653875470161,
      -0.01564147137105465,
      -0.029863137751817703,
      -0.025189043954014778,
      0.012471945956349373,
      0.01383940875530243,
      -0.022353520616889,
      0.036769479513168335,
      -0.022810198366642,
      -0.012728869915008545,
      -0.02425379492342472,
      0.005476168356835842,
      -0.008226183243095875,
      0.03335478529334068,
      -0.0145140141248703,
      -0.03880854696035385,
      0.02710900641977787,
      -0.024556249380111694,
      0.04411787912249565,
      -0.004261729773133993,
      -0.023925604298710823,
      0.038493070751428604,
      0.005693186540156603,
      0.05420717969536781,
      -0.005869490094482899,
      -0.03650275990366936,
      -0.00578906899318099,
      -0.016834599897265434,
      0.007869374006986618,
      0.01916966587305069,
      -0.014622100628912449,
      -0.04489663615822792,
      0.03809710219502449,
      0.033859916031360626,
      -0.003263982944190502,
      -0.02729843743145466,
      -0.04143040254712105,
      0.03526059165596962,
      0.016238776966929436,
      0.021255197003483772,
      0.0008102001738734543,
      -0.03129800036549568
    ],
    [
      0.007636265363544226,
      -0.02924492210149765,
      0.014660101383924484,
      0.025685954838991165,
      0.024853764101862907,
      -0.026866016909480095,
      -0.0036665559746325016,
      1.7094833310693502e-05,
      -0.0056513468734920025,
      -0.011537494137883186,
      -0.025239113718271255,
      -0.0027945409528911114,
      0.024881575256586075,
      0.00010935262980638072,
      -0.03357237949967384,
      0.022333798930048943,
      0.020695582032203674,
      -0.00819812435656786,
      0.009568460285663605,
      -0.0395304374396801,
      0.011408945545554161,
      0.01469365693628788,
      0.021490901708602905,
      -0.02228678949177265,
      0.014803143218159676,
      0.021333083510398865,
      0.015622599981725216,
      0.0033107507042586803,
      -0.006797762122005224,
      0.028042037039995193,
      -0.025857752189040184,
      -0.02754472941160202,
      -0.025280773639678955,
      0.021430714055895805,
      0.020079882815480232,
      0.05990925431251526,
      0.03729085996747017,
      0.017156969755887985,
      0.003355027874931693,
      0.012973575852811337,
      0.020861944183707237,
      0.007070344872772694,
      -0.049598220735788345,
      0.04696473851799965,
      -0.012582025490701199,
      -0.02589397132396698,
      -0.019242815673351288,
      0.0006268772995099425,
      0.011383255943655968,
      -0.029413266107439995,
      -0.02235003560781479,
      -0.03281807154417038,
      0.006247507408261299,
      -0.028902769088745117,
      0.021776597946882248,
      0.0319427065551281,
      -0.036934059113264084,
      0.01289758738130331,
      -0.026984751224517822,
      -0.012857744470238686,
      0.03142493590712547,
      -0.010030348785221577,
      0.020798007026314735,
      -0.020931072533130646
    ],
    [
      0.03972768411040306,
      0.020532146096229553,
      -0.012748709879815578,
      -0.025638259947299957,
      0.014307485893368721,
      -0.02487991936504841,
      -0.018346289172768593,
      -0.030045144259929657,
      -0.04417997971177101,
      0.02405274473130703,
      -0.030234932899475098,
      -0.03325072303414345,
      -0.019371721893548965,
      -0.0007753726094961166,
      0.02015557885169983,
      -0.019377348944544792,
      -0.022630320861935616,
      0.009547476656734943,
      -0.03885970637202263,
      0.016162512823939323,
      -0.02555099129676819,
      -0.00716564804315567,
      0.04892215132713318,
      0.025783805176615715,
      0.029635664075613022,
      0.013981975615024567,
      -0.010423725470900536,
      -0.03703214228153229,
      0.005337575450539589,
      -0.04015688970685005,
      -0.01866992749273777,
      0.03347468003630638,
      -0.004385230131447315,
      -0.0066847302950918674,
      -0.006012728903442621,
      0.03798837587237358,
      -0.03714672476053238,
      -0.010144759900867939,
      -0.018302911892533302,
      0.010080280713737011,
      -0.03578007593750954,
      -0.029703481122851372,
      -0.0073542119935154915,
      -0.02978541888296604,
      -0.0333891361951828,
      -0.01604503020644188,
      0.017550596967339516,
      -0.008475068025290966,
      0.021837543696165085,
      -0.01561958808451891,
      0.0008240361348725855,
      0.03238794952630997,
      0.0004016529128421098,
      0.03841051459312439,
      0.02465738356113434,
      -0.0011225973721593618,
      0.00612171133980155,
      0.04351162165403366,
      0.00676118116825819,
      -0.0017070671310648322,
      0.009428869932889938,
      0.01941109262406826,
      0.02038060687482357,
      -0.021429529413580894
    ],
    [
      -0.04345593601465225,
      -0.02335566282272339,
      0.025711853057146072,
      -0.008250907994806767,
      -0.04561205953359604,
      -0.014083818532526493,
      0.0346541702747345,
      0.02778617851436138,
      0.017013784497976303,
      -0.010862111113965511,
      -0.01471406128257513,
      0.022789549082517624,
      0.022275177761912346,
      -0.004864364862442017,
      -0.03180220350623131,
      0.009054357185959816,
      -0.020495735108852386,
      -0.01914105750620365,
      0.038638751953840256,
      -0.005996724124997854,
      0.014911920763552189,
      0.010750154964625835,
      -0.004015934653580189,
      0.02100149169564247,
      0.015029982663691044,
      -0.01708807609975338,
      0.043588995933532715,
      -0.022370168939232826,
      0.005021682009100914,
      0.02751755341887474,
      -0.04071296751499176,
      -0.03569469228386879,
      0.014041638001799583,
      -0.0006183320074342191,
      0.014076014049351215,
      0.01293701771646738,
      0.035192862153053284,
      0.007364789489656687,
      -0.012374715879559517,
      0.027448497712612152,
      0.028757063671946526,
      0.019329393282532692,
      -0.026978248730301857,
      0.005633488297462463,
      -0.017364898696541786,
      0.013798393309116364,
      0.00870601087808609,
      0.007109092082828283,
      0.022258145734667778,
      -0.005527396686375141,
      0.005083088763058186,
      -0.03332565724849701,
      0.006352321710437536,
      -0.003151647048071027,
      0.029914963990449905,
      0.012333845719695091,
      -0.0038141426630318165,
      -0.01943880505859852,
      -0.028355112299323082,
      0.01733618602156639,
      0.03296571969985962,
      -0.043848033994436264,
      0.00667747063562274,
      -0.026465225964784622
    ],
    [
      -0.02100578509271145,
      0.006897927727550268,
      0.04878198355436325,
      0.02546842396259308,
      0.0026868339627981186,
      0.027443857863545418,
      -0.010683709755539894,
      0.0034078280441462994,
      -0.031858041882514954,
      0.0019620333332568407,
      -0.04665803164243698,
      -0.03372032940387726,
      -0.027434224262833595,
      0.016080372035503387,
      -0.007965494878590107,
      0.01506178081035614,
      -0.008116780780255795,
      -0.008607523515820503,
      -0.0010833877604454756,
      -0.010810021311044693,
      0.009291551075875759,
      0.02531004510819912,
      0.015074620954692364,
      0.005156176630407572,
      0.015425095334649086,
      -0.002466782694682479,
      -0.008108737878501415,
      0.022622860968112946,
      -0.053354661911726,
      -0.019621895626187325,
      0.030394403263926506,
      0.005215798504650593,
      0.0020514936186373234,
      0.05199733003973961,
      -0.011187678202986717,
      -0.05168795585632324,
      -0.008061309345066547,
      -0.016991088166832924,
      0.02528422884643078,
      -0.015100523829460144,
      -0.00096656329696998,
      0.03878706693649292,
      -0.027844879776239395,
      -0.0019642419647425413,
      -0.028398390859365463,
      0.018488332629203796,
      0.06224406883120537,
      0.027821527794003487,
      0.019211463630199432,
      -0.028706785291433334,
      0.02794119156897068,
      0.006859719753265381,
      0.026442496106028557,
      -0.009573905728757381,
      0.006487013306468725,
      -0.019707228988409042,
      0.002022599568590522,
      0.02007150650024414,
      0.012003720737993717,
      0.0019138994393870234,
      0.0006687692366540432,
      -0.00022450296091847122,
      -0.022626614198088646,
      0.019708719104528427
    ],
    [
      -0.02691677398979664,
      0.006746891885995865,
      -0.0002600850712042302,
      0.016760896891355515,
      0.004611091688275337,
      0.008698450401425362,
      -0.02871430292725563,
      0.005711167585104704,
      0.0010009979596361518,
      -0.016588209196925163,
      -0.03426598384976387,
      -0.00018949586956296116,
      0.019092977046966553,
      0.014098821207880974,
      0.013102361001074314,
      -0.0011216397397220135,
      0.01950802654027939,
      -0.013492393307387829,
      0.016389472410082817,
      0.011200649663805962,
      -0.017939355224370956,
      -0.00819728896021843,
      0.033425964415073395,
      0.001530379056930542,
      0.02165932208299637,
      0.018458466976881027,
      0.0034490926191210747,
      -0.02149830386042595,
      -0.006085301283746958,
      0.003958255052566528,
      0.015853367745876312,
      -0.014133124612271786,
      -0.0128268888220191,
      0.02723429538309574,
      0.012101244181394577,
      -0.017296943813562393,
      -0.039514344185590744,
      0.0004015544836875051,
      -0.013078637421131134,
      0.0005802871310152113,
      0.013569573871791363,
      -0.0044472538866102695,
      0.003488149493932724,
      -0.00487193837761879,
      0.010441169142723083,
      -0.011850358918309212,
      0.019181158393621445,
      0.012187865562736988,
      -0.012202084995806217,
      0.010619265027344227,
      0.04705209657549858,
      0.008123118430376053,
      0.023551233112812042,
      0.01678723469376564,
      0.022226855158805847,
      0.009993506595492363,
      -0.007994567044079304,
      0.030993027612566948,
      0.01662558689713478,
      -0.006367778405547142,
      0.02204776741564274,
      0.011234933510422707,
      -0.024295607581734657,
      0.01921207644045353
    ],
    [
      -0.0017714448040351272,
      0.0076729608699679375,
      0.008159270510077477,
      0.05289912223815918,
      -0.024552876129746437,
      -0.0025681389961391687,
      0.029135556891560555,
      0.022984907031059265,
      0.02337559126317501,
      0.005963171366602182,
      0.022444989532232285,
      -0.003261150559410453,
      -0.044149935245513916,
      -0.04211744666099548,
      0.022165803238749504,
      0.02278890646994114,
      0.03472263738512993,
      0.04974019154906273,
      -0.003993629943579435,
      0.009033851325511932,
      0.012186151929199696,
      0.02268248423933983,
      -0.017230575904250145,
      0.025393808260560036,
      0.023838507011532784,
      -0.0134362718090415,
      0.033927738666534424,
      0.01553228311240673,
      0.016876528039574623,
      -0.003317816648632288,
      -0.007060094736516476,
      -0.013669491745531559,
      -0.03165103867650032,
      -0.03124210610985756,
      -0.042070355266332626,
      0.025927484035491943,
      -0.0005323745426721871,
      0.007145950570702553,
      0.029388586059212685,
      -0.0402950756251812,
      0.0024439292028546333,
      -0.0149911567568779,
      -0.019441980868577957,
      -0.0508606992661953,
      -0.043819084763526917,
      0.015475472435355186,
      0.012461196631193161,
      -0.03775336965918541,
      0.0009633827721700072,
      -0.020342515781521797,
      -0.040003322064876556,
      0.009336334653198719,
      0.01140815019607544,
      0.0012248271377757192,
      0.00041116660577245057,
      0.027223411947488785,
      0.012746027670800686,
      0.005468766205012798,
      -0.04183145612478256,
      0.031261563301086426,
      -0.008514131419360638,
      0.005870997440069914,
      0.010955126024782658,
      -0.030290726572275162
    ],
    [
      0.02166169323027134,
      0.03843637928366661,
      0.021266380324959755,
      0.045487966388463974,
      -0.03986575827002525,
      0.039586588740348816,
      0.05552271753549576,
      -0.018429072573781013,
      0.014626272954046726,
      0.015848899260163307,
      -0.04032312333583832,
      0.027172353118658066,
      0.0026618875563144684,
      0.01096568163484335,
      0.02344581112265587,
      -0.016589878126978874,
      0.040483709424734116,
      0.023576876148581505,
      -0.016388243064284325,
      -0.04273327440023422,
      -0.010075332596898079,
      -0.009540295228362083,
      0.04693262651562691,
      -0.01769437827169895,
      -0.01969301700592041,
      -0.029100637882947922,
      -0.02281739003956318,
      0.02706051617860794,
      0.02256156876683235,
      -0.042747195810079575,
      0.028116686269640923,
      0.03127414733171463,
      -0.04404628276824951,
      0.014244412072002888,
      0.04759468510746956,
      -0.002931922907009721,
      -0.019631236791610718,
      -0.00680022407323122,
      -0.04392571374773979,
      0.02466203086078167,
      -0.03106178157031536,
      0.030785122886300087,
      -0.0027347267605364323,
      -0.021244550123810768,
      -0.036601722240448,
      -0.01970156840980053,
      -0.010440746322274208,
      -0.02191401831805706,
      0.02807949297130108,
      0.024775506928563118,
      0.012177716940641403,
      0.003333019558340311,
      -0.013554498553276062,
      0.041605520993471146,
      -0.0417502261698246,
      -0.0026197119150310755,
      0.032922565937042236,
      0.04181164130568504,
      -0.018986456096172333,
      -0.0382223017513752,
      0.020417558029294014,
      0.02203345112502575,
      0.021597497165203094,
      0.02835339680314064
    ],
    [
      -0.01847219653427601,
      -0.052778616547584534,
      -0.002429456450045109,
      0.02837747149169445,
      -0.023206787183880806,
      -0.0033044181764125824,
      0.026025377213954926,
      0.03604233264923096,
      0.014519532211124897,
      -0.03270820900797844,
      0.01987338624894619,
      0.02027536742389202,
      -0.011256899684667587,
      -0.037714868783950806,
      0.02838839776813984,
      0.0076836999505758286,
      0.0067111412063241005,
      -0.04749594256281853,
      0.020675111562013626,
      -0.017832020297646523,
      -0.016180654987692833,
      -0.016364896669983864,
      0.018993819132447243,
      -0.03941112384200096,
      -0.006810924969613552,
      0.010236979462206364,
      0.010935431346297264,
      0.03963452950119972,
      0.03051115572452545,
      -0.007558092940598726,
      0.012759215198457241,
      -0.05109049007296562,
      -0.031148456037044525,
      -0.04638925567269325,
      -0.012668967247009277,
      -0.018950337544083595,
      0.0002605570189189166,
      0.007636705879122019,
      -0.003840678371489048,
      0.024935033172369003,
      0.02844924107193947,
      0.03603401035070419,
      -0.04286950081586838,
      0.033560700714588165,
      0.04003790766000748,
      -0.0047596655786037445,
      0.01043678168207407,
      -0.028524300083518028,
      -0.0347302109003067,
      0.010383052751421928,
      -0.06472713500261307,
      -0.02095019817352295,
      0.02200949192047119,
      -0.0018077804706990719,
      0.030011260882019997,
      0.004129663109779358,
      -0.020461244508624077,
      -0.025910349562764168,
      -0.007602205500006676,
      0.013702407479286194,
      -0.029974667355418205,
      0.026115132495760918,
      0.0010108331916853786,
      -0.01252523809671402
    ],
    [
      0.016211988404393196,
      0.033859409391880035,
      0.029117999598383904,
      0.019000479951500893,
      -0.021736957132816315,
      0.017829736694693565,
      0.016354519873857498,
      -0.03530338779091835,
      0.012386021204292774,
      0.0006638610502704978,
      -0.017056705430150032,
      0.01265942957252264,
      -0.029582088813185692,
      -0.024578355252742767,
      -0.007056460250169039,
      -0.019376028329133987,
      0.030138874426484108,
      -0.01359520386904478,
      -0.014223791658878326,
      0.008934739977121353,
      -0.044169794768095016,
      0.03299959376454353,
      -0.022602705284953117,
      -0.03793817386031151,
      -0.03633565828204155,
      0.028074102476239204,
      -0.015729932114481926,
      -0.026281259953975677,
      0.040598198771476746,
      0.01045458484441042,
      0.038109712302684784,
      0.04769408330321312,
      -0.005725071765482426,
      -0.01952323317527771,
      0.0304365586489439,
      -0.012078020721673965,
      -0.012116544879972935,
      -0.008662162348628044,
      0.01483323983848095,
      -0.027874205261468887,
      -0.04832875728607178,
      0.03325289487838745,
      0.016320334747433662,
      -0.04391460493206978,
      -0.047641050070524216,
      -0.03214413300156593,
      -0.022339925169944763,
      -0.015450824052095413,
      -5.747564136981964e-05,
      -0.01365410815924406,
      0.008112026378512383,
      0.03066282346844673,
      0.0027118222787976265,
      -0.009358948096632957,
      0.0016022594645619392,
      -0.0380687341094017,
      0.01617714948952198,
      0.047682326287031174,
      -0.020354894921183586,
      0.017080871388316154,
      0.0077808150090277195,
      0.03812491148710251,
      0.04120432212948799,
      0.028432048857212067
    ],
    [
      0.03040744736790657,
      -0.03303926810622215,
      0.006431435234844685,
      0.0025571617297828197,
      0.039670150727033615,
      -0.028807025402784348,
      -0.034998249262571335,
      0.028561776503920555,
      -0.04050971940159798,
      0.03517439588904381,
      0.020223096013069153,
      -0.03171826899051666,
      -0.03101099096238613,
      -0.011365965940058231,
      -0.03518082574009895,
      -0.019852368161082268,
      -0.003159420797601342,
      0.041747428476810455,
      0.01596788316965103,
      0.02012789621949196,
      0.023374946787953377,
      -0.007307360880076885,
      -0.028776466846466064,
      -0.037332452833652496,
      -0.03769601508975029,
      0.00521071907132864,
      -0.018894346430897713,
      -0.030033009126782417,
      -0.0063699642196297646,
      0.023377614095807076,
      -0.02152109518647194,
      -0.02984488569200039,
      0.020991448312997818,
      -0.015644574537873268,
      0.022394413128495216,
      0.030183095484972,
      0.0190469678491354,
      0.033079154789447784,
      0.03665388002991676,
      0.04590228199958801,
      0.017678461968898773,
      -0.022252321243286133,
      0.025967581197619438,
      -0.011882896535098553,
      0.004204769153147936,
      0.011904225684702396,
      -0.03383675962686539,
      -0.006558286491781473,
      -0.025360681116580963,
      -0.01289474219083786,
      -0.01895160973072052,
      -0.03893289342522621,
      -0.026086241006851196,
      -0.03472791239619255,
      0.01835871860384941,
      0.03559643030166626,
      0.02217956632375717,
      -0.015155945904552937,
      -0.022568650543689728,
      -0.008392756804823875,
      0.05227253586053848,
      -0.0074419439770281315,
      0.01812911592423916,
      -0.007616626098752022
    ],
    [
      -0.024893764406442642,
      0.006844351999461651,
      0.04037150368094444,
      0.04374697059392929,
      -0.0015733434120193124,
      0.02372966893017292,
      0.03585280105471611,
      0.016972854733467102,
      -0.013059834018349648,
      0.020019197836518288,
      0.0009896918199956417,
      -0.007824882864952087,
      0.025524672120809555,
      0.01649140566587448,
      -0.040929749608039856,
      -0.02197134867310524,
      0.002002707216888666,
      -0.026147110387682915,
      0.013144399970769882,
      0.06403091549873352,
      0.027939099818468094,
      -0.024153057485818863,
      0.0429079569876194,
      -0.033194027841091156,
      -0.044511448591947556,
      0.01108060497790575,
      0.03931315243244171,
      -0.017706437036395073,
      -0.007128284778445959,
      -0.024434451013803482,
      0.02353815548121929,
      -0.01047144178301096,
      0.0030386780854314566,
      -0.011123955249786377,
      0.05751542001962662,
      -0.02845134027302265,
      0.04031601920723915,
      -0.05324864760041237,
      -0.030383368954062462,
      -0.003451127093285322,
      -0.012845323421061039,
      -0.03301314264535904,
      0.01779351942241192,
      0.0057691591791808605,
      -0.019819924607872963,
      0.027626659721136093,
      0.04317037761211395,
      -0.019236894324421883,
      -0.010360726155340672,
      -0.02320530079305172,
      0.036335933953523636,
      0.02933061122894287,
      0.009313124231994152,
      0.01582654006779194,
      0.0055300164967775345,
      -0.01236275676637888,
      0.044869888573884964,
      -0.006177634000778198,
      -0.025643838569521904,
      0.027722781524062157,
      0.005936873145401478,
      -0.03697676584124565,
      -0.019259711727499962,
      -0.011548414826393127
    ],
    [
      -0.00971738900989294,
      0.030493002384901047,
      0.026167776435613632,
      0.018407359719276428,
      0.02769453264772892,
      0.03082258813083172,
      -0.05233433097600937,
      0.0025815798435360193,
      -0.01799655705690384,
      0.029717188328504562,
      -0.006990504916757345,
      -0.021996114403009415,
      -0.02569000795483589,
      -0.0029554995708167553,
      -0.010282780043780804,
      0.0183034036308527,
      0.018824080005288124,
      0.014974631369113922,
      -0.006448089145123959,
      0.0016206088475883007,
      -0.009535969235002995,
      -0.02934126928448677,
      -0.0008112874929793179,
      -0.024395465850830078,
      -0.013278347440063953,
      0.033383969217538834,
      -0.02262505330145359,
      -0.04853799194097519,
      0.045535583049058914,
      0.017416927963495255,
      0.02359939180314541,
      0.019541313871741295,
      -0.015601909719407558,
      -0.01050263736397028,
      0.011847522109746933,
      -0.026906907558441162,
      0.016828542575240135,
      0.0015585914952680469,
      -0.017170922830700874,
      0.020678218454122543,
      -0.04099592939019203,
      0.020812097936868668,
      0.009982055053114891,
      0.011222240515053272,
      -0.0014219427248463035,
      0.022782867774367332,
      -0.014316235668957233,
      0.010529476217925549,
      0.03385714814066887,
      -0.03438558802008629,
      0.02237267792224884,
      0.0457378588616848,
      0.017053809016942978,
      0.00881144218146801,
      0.01207259763032198,
      -0.037655722349882126,
      0.007632375694811344,
      0.006483904086053371,
      -0.004835106898099184,
      -0.011475537903606892,
      0.052081894129514694,
      0.03796524181962013,
      -0.005386844743043184,
      -0.029924241825938225
    ],
    [
      0.004058351274579763,
      -0.03366512060165405,
      -0.0175944734364748,
      -0.03598406910896301,
      0.0021328977309167385,
      0.04418357089161873,
      0.003357359440997243,
      0.044312406331300735,
      -0.025709502398967743,
      0.010079328902065754,
      -0.005027269013226032,
      -0.03072388283908367,
      -0.013480083085596561,
      0.018945539370179176,
      -0.00402492331340909,
      0.012231303378939629,
      0.01769893802702427,
      -0.04070691391825676,
      0.022452350705862045,
      0.04310685768723488,
      0.004743139259517193,
      -0.024962110444903374,
      -0.03686666861176491,
      0.008509683422744274,
      0.029549291357398033,
      -0.0017287700902670622,
      -0.023656481876969337,
      0.025703465566039085,
      0.033759381622076035,
      -0.02313178777694702,
      0.0184796005487442,
      -0.031104402616620064,
      -0.00850597396492958,
      0.0260766614228487,
      -0.05699031427502632,
      -0.0012270003790035844,
      -0.031354524195194244,
      -0.018777593970298767,
      0.01350397802889347,
      -0.004973238334059715,
      -0.019594620913267136,
      0.0056211682967841625,
      0.043908942490816116,
      -0.024539250880479813,
      0.05218776687979698,
      -0.018105216324329376,
      0.034505557268857956,
      0.011851916089653969,
      -0.016382737085223198,
      0.025542018935084343,
      0.008510570041835308,
      -0.01867762766778469,
      0.01880057156085968,
      -0.0037331124767661095,
      0.01026597898453474,
      -0.010807109996676445,
      -0.006344395224004984,
      0.0007983561372384429,
      0.019368162378668785,
      0.04142172634601593,
      -0.02184014767408371,
      -0.01313596311956644,
      -0.02434352971613407,
      0.019903119653463364
    ],
    [
      -0.04073666036128998,
      0.019358910620212555,
      -0.03461731970310211,
      0.034690409898757935,
      0.023189567029476166,
      0.014921926893293858,
      0.013844255357980728,
      -0.04845155030488968,
      -0.04087560623884201,
      -0.052954114973545074,
      -0.03466052561998367,
      -0.03202885761857033,
      -0.0027399007230997086,
      0.04754786938428879,
      -0.030095795169472694,
      -0.01331015583127737,
      0.0015675429021939635,
      -0.00011605140753090382,
      -0.04313739016652107,
      -0.028519758954644203,
      -0.017964618280529976,
      -0.03660641610622406,
      0.039534687995910645,
      0.03400132432579994,
      -0.0015465171309188008,
      -0.009860792197287083,
      0.0164381954818964,
      0.011333114467561245,
      -0.03167632222175598,
      -0.03069225326180458,
      -2.071334165520966e-06,
      0.022094476968050003,
      -0.0017007457790896297,
      0.03312045708298683,
      -0.008732562884688377,
      -0.01808231696486473,
      -0.0009361674310639501,
      0.004414350725710392,
      0.0061423624865710735,
      -0.008031810633838177,
      0.001167723792605102,
      -0.009776968508958817,
      0.027682198211550713,
      -0.013247102499008179,
      -0.0018442984437569976,
      -0.0024646513629704714,
      -0.017029549926519394,
      0.026194529607892036,
      -0.018900683149695396,
      0.005627403035759926,
      0.03532128781080246,
      0.0014802055666223168,
      0.0015624130610376596,
      -0.025846309959888458,
      0.025920320302248,
      -0.017355047166347504,
      -0.038592688739299774,
      -0.035567138344049454,
      -0.006429322529584169,
      0.005134398117661476,
      -0.018623419106006622,
      0.017791129648685455,
      0.051466986536979675,
      0.006643257569521666
    ],
    [
      0.022565968334674835,
      -0.019224273040890694,
      0.007016362156718969,
      -0.0020747396629303694,
      0.01873459853231907,
      -0.03245928883552551,
      -0.012436793185770512,
      -0.009306497871875763,
      0.007349635940045118,
      -0.005966796074062586,
      -0.016322201117873192,
      0.00953237246721983,
      0.010949298739433289,
      0.0182476956397295,
      -0.02735920064151287,
      -0.008996527642011642,
      -0.004961946979165077,
      -0.04361683875322342,
      0.03326282650232315,
      -0.017825910821557045,
      -0.02206439897418022,
      0.019967790693044662,
      -0.006470514461398125,
      0.020757203921675682,
      -0.02160133607685566,
      0.04938438534736633,
      -0.013922717422246933,
      -0.05143047124147415,
      0.01764715649187565,
      -0.016656506806612015,
      0.030840838328003883,
      -0.029891718178987503,
      -0.005477215629070997,
      0.01728793978691101,
      0.0073859295807778835,
      0.0032531749457120895,
      0.019597874954342842,
      0.013657606206834316,
      0.01695357635617256,
      -0.0029620465356856585,
      -0.017159191891551018,
      0.01414576731622219,
      0.015617419965565205,
      0.0261213518679142,
      0.014490430243313313,
      -0.03462426736950874,
      0.019071221351623535,
      0.017141688615083694,
      -0.01345454715192318,
      -0.02366350218653679,
      0.009016400203108788,
      0.0547344870865345,
      -0.006448809988796711,
      0.00805838406085968,
      -0.005335316993296146,
      0.03944157809019089,
      -0.04745416343212128,
      0.0009525793138891459,
      0.0032228194177150726,
      0.0022276381496340036,
      0.014525007456541061,
      0.038435786962509155,
      -0.0129150515422225,
      0.03871065750718117
    ],
    [
      -0.038419563323259354,
      -0.011372904293239117,
      0.01690547540783882,
      -0.039194509387016296,
      0.03067699261009693,
      -0.04870499670505524,
      -0.0441746786236763,
      -0.0062962668016552925,
      -0.026993997395038605,
      0.0332246869802475,
      -0.006835106294602156,
      -0.030262893065810204,
      -0.04173685610294342,
      0.029191847890615463,
      -0.027844881638884544,
      -0.007490945514291525,
      0.016749773174524307,
      0.005384447053074837,
      -0.028198858723044395,
      -0.009870625101029873,
      -0.04210581257939339,
      -0.0298574548214674,
      -0.02559063211083412,
      0.03910086676478386,
      -0.010173071175813675,
      -0.043584227561950684,
      -0.027916667982935905,
      0.042739663273096085,
      -0.043138064444065094,
      -0.0016844506608322263,
      -0.03260544687509537,
      -0.0253146942704916,
      -0.012380314990878105,
      0.045722536742687225,
      -0.029763801023364067,
      -0.03614248335361481,
      0.0021715648472309113,
      0.007496376521885395,
      0.022422434762120247,
      0.03265201300382614,
      0.037507571280002594,
      -0.03601715713739395,
      0.03461524099111557,
      0.008603495545685291,
      0.040132004767656326,
      -0.041038643568754196,
      -0.00641076173633337,
      -0.017539052292704582,
      -0.020644811913371086,
      0.012700374238193035,
      0.04020485281944275,
      0.012530622072517872,
      0.038944631814956665,
      -0.035778529942035675,
      0.05779924988746643,
      0.04295661300420761,
      0.02331828512251377,
      0.0072864689864218235,
      0.019001087173819542,
      0.027371708303689957,
      0.021666258573532104,
      0.03806008771061897,
      0.026626456528902054,
      0.05099334195256233
    ],
    [
      0.04089563339948654,
      -0.005172348115593195,
      -4.542485112324357e-05,
      0.018066179007291794,
      -0.0006488650105893612,
      0.039124131202697754,
      0.02049374207854271,
      0.010809022933244705,
      -0.003026495920494199,
      0.007854616269469261,
      -0.021483393386006355,
      0.005885425489395857,
      -0.035748403519392014,
      -0.01363417785614729,
      0.02404651790857315,
      -0.01865452341735363,
      0.02923925779759884,
      0.007982499897480011,
      0.007490046322345734,
      0.028640929609537125,
      0.015808485448360443,
      0.0016913918079808354,
      -0.003263341262936592,
      0.013578882440924644,
      -0.011012043803930283,
      -0.013273622840642929,
      -0.009420781396329403,
      -0.0035902925301343203,
      0.0014035118510946631,
      -0.012600184418261051,
      0.030552346259355545,
      -0.0018139492021873593,
      -0.008429902605712414,
      0.0004086467670276761,
      -0.015125238336622715,
      0.014767740853130817,
      -0.02861909009516239,
      -0.013272934593260288,
      -0.006267611403018236,
      -0.016293520107865334,
      -0.02637656219303608,
      0.003885391866788268,
      0.025709161534905434,
      -0.03727375715970993,
      -0.021934550255537033,
      0.01320878230035305,
      -0.01357341930270195,
      -0.013225654140114784,
      0.0344286672770977,
      -0.0439872071146965,
      -0.0038383835926651955,
      -0.0165754035115242,
      -0.02437930554151535,
      -0.0036100198049098253,
      -0.031386397778987885,
      0.00032047968124970794,
      0.003605445846915245,
      0.03267115727066994,
      -0.05340524762868881,
      0.01862582005560398,
      0.01591644622385502,
      -0.025045786052942276,
      -0.017926743254065514,
      -0.005227483343333006
    ],
    [
      -0.04031796008348465,
      0.03529135510325432,
      -0.04217465594410896,
      -0.016789907589554787,
      -0.017630092799663544,
      0.034242499619722366,
      0.03197344020009041,
      0.01154390536248684,
      0.03944256901741028,
      0.024260642006993294,
      -0.0031315134838223457,
      0.039107657968997955,
      0.021173689514398575,
      0.036593224853277206,
      0.037854768335819244,
      -0.02377990446984768,
      0.02973509021103382,
      0.021375859156250954,
      0.010832775384187698,
      -0.03948779031634331,
      0.02589588053524494,
      -0.024651838466525078,
      0.005853643640875816,
      0.047317024320364,
      0.006049599498510361,
      0.029154440388083458,
      0.014562572352588177,
      0.030027339234948158,
      0.016824468970298767,
      -0.04443865641951561,
      -0.011199988424777985,
      0.02045786939561367,
      -0.029504047706723213,
      -0.026750164106488228,
      -0.031232118606567383,
      -0.013527536764740944,
      -0.00669219670817256,
      -0.02403631992638111,
      0.009860395453870296,
      -0.008857487700879574,
      -0.025827694684267044,
      -0.046834591776132584,
      0.04421797767281532,
      -0.029263831675052643,
      -0.015060994774103165,
      0.01829727552831173,
      0.03030988574028015,
      0.008596372790634632,
      -0.009744065813720226,
      0.013428223319351673,
      0.04121154174208641,
      -0.002391038928180933,
      0.05023365095257759,
      -0.013448857702314854,
      0.036943890154361725,
      -0.04285433143377304,
      0.028337150812149048,
      -0.030649565160274506,
      0.03100116178393364,
      -0.024446265771985054,
      -0.0236271470785141,
      -0.014550313353538513,
      -0.04193858802318573,
      0.007705792784690857
    ],
    [
      0.031153762713074684,
      0.04231299087405205,
      -0.06975254416465759,
      -0.01383371464908123,
      0.006021039094775915,
      -0.03637450188398361,
      -0.01701059378683567,
      0.040852680802345276,
      -0.012279671616852283,
      -0.014478318393230438,
      -0.020217839628458023,
      -0.02550346963107586,
      0.03866743668913841,
      0.04200120270252228,
      -0.001621936564333737,
      -0.007668913342058659,
      0.016292747110128403,
      -0.027643898501992226,
      0.021225450560450554,
      0.026123348623514175,
      0.02904209867119789,
      -0.0032450431026518345,
      0.020211920142173767,
      -0.0022331210784614086,
      -0.03652573749423027,
      0.011420042254030704,
      -0.03253285214304924,
      -0.037604670971632004,
      -0.029667358845472336,
      0.018959924578666687,
      0.013203602284193039,
      0.0324348546564579,
      -0.028199056163430214,
      0.009486856870353222,
      0.014613736420869827,
      0.016783032566308975,
      0.008822547271847725,
      0.02520962990820408,
      0.04366154223680496,
      -0.006330137141048908,
      -0.0017034858465194702,
      0.00026583654107525945,
      0.02426965907216072,
      0.04086284339427948,
      -0.04061388969421387,
      0.035078905522823334,
      -0.015236587263643742,
      0.02498168870806694,
      0.032323770225048065,
      0.014439556747674942,
      0.000805119052529335,
      -0.024449432268738747,
      -0.02915293537080288,
      -0.003791503142565489,
      -0.04616870731115341,
      -0.031103605404496193,
      -0.005602983757853508,
      -0.033316489309072495,
      -0.035982221364974976,
      0.024319399148225784,
      0.010126165114343166,
      -0.025918351486325264,
      -0.046315476298332214,
      -0.032854724675416946
    ],
    [
      -0.01603834517300129,
      0.02559014782309532,
      -0.02529897913336754,
      0.008660438470542431,
      0.025846246629953384,
      0.03577859699726105,
      -0.036553286015987396,
      -0.00256359507329762,
      -0.02320949174463749,
      0.022311126813292503,
      -0.020086059346795082,
      -0.013248118571937084,
      -0.014758049510419369,
      0.028355924412608147,
      0.02916661649942398,
      -0.007693539373576641,
      0.026327650994062424,
      -0.013212954625487328,
      0.0032534950878471136,
      0.00038357317680492997,
      -0.018957141786813736,
      0.010816493071615696,
      -0.005664121359586716,
      -0.04374893009662628,
      0.019587887451052666,
      0.02718912810087204,
      -0.008792636916041374,
      0.02006925642490387,
      -0.008588241413235664,
      -0.010739263147115707,
      0.02039838768541813,
      0.025234311819076538,
      -0.025873525068163872,
      0.020663099363446236,
      0.03192844241857529,
      0.015486241318285465,
      -0.023416606709361076,
      0.016176903620362282,
      -0.02615772932767868,
      0.018881751224398613,
      -0.010555487126111984,
      0.002822023117914796,
      0.0197541955858469,
      -0.02658897452056408,
      -0.024077853187918663,
      -0.01424151286482811,
      0.010296306572854519,
      0.026231156662106514,
      -0.030772987753152847,
      0.017426038160920143,
      0.0366981141269207,
      -0.03283785283565521,
      0.03778856247663498,
      -0.013171945698559284,
      0.0015468260971829295,
      -0.016540884971618652,
      0.027668636292219162,
      0.019523711875081062,
      0.04085909575223923,
      0.00816020742058754,
      -0.009646737016737461,
      -0.04348579794168472,
      -0.02256999909877777,
      -0.013842367567121983
    ],
    [
      0.02851613610982895,
      0.004557332489639521,
      -0.01475580781698227,
      -0.0009967160876840353,
      0.011539729312062263,
      0.008987078443169594,
      0.02510928362607956,
      0.026104964315891266,
      -0.013885831460356712,
      0.015469588339328766,
      -0.024723226204514503,
      -0.02743978053331375,
      -0.012843445874750614,
      0.02037712000310421,
      0.020227352157235146,
      -0.01577826403081417,
      0.03006838448345661,
      0.028767962008714676,
      0.015469563193619251,
      0.006634111981838942,
      -0.03589186444878578,
      -0.02460387907922268,
      0.03115071915090084,
      -0.00787984300404787,
      -0.019049031659960747,
      -0.030428677797317505,
      0.007213270757347345,
      0.0032495269551873207,
      -0.019939882680773735,
      0.0160775575786829,
      0.026526888832449913,
      -0.01715778559446335,
      -0.02757689543068409,
      0.018621131777763367,
      0.012904344126582146,
      0.002978011267259717,
      -0.033832892775535583,
      -0.003798564663156867,
      -0.013537404127418995,
      -0.023662911728024483,
      -0.024546537548303604,
      0.018490077927708626,
      0.0252247154712677,
      0.013411503285169601,
      -0.03538377955555916,
      0.01835019513964653,
      -0.02195393666625023,
      0.01180562935769558,
      -0.0039041514974087477,
      0.017849504947662354,
      0.014074848033487797,
      -0.006980221252888441,
      -0.008495700545608997,
      0.0192982517182827,
      -0.0007292251684702933,
      -0.008468244224786758,
      -0.013306302949786186,
      0.04510587453842163,
      0.010235557332634926,
      0.028988594189286232,
      -0.009681615978479385,
      -0.006303420290350914,
      -0.027363816276192665,
      -0.0029971774201840162
    ],
    [
      0.018725266680121422,
      -0.02728082984685898,
      -0.03405461832880974,
      -0.04532933607697487,
      -0.05655134841799736,
      -0.013536060228943825,
      0.02802291326224804,
      -0.02107882685959339,
      0.014795673079788685,
      -0.026578495278954506,
      0.004390065558254719,
      0.004641360603272915,
      -0.032631609588861465,
      -0.026392659172415733,
      -0.008773344568908215,
      0.007665163371711969,
      -0.04340721666812897,
      0.02547689527273178,
      -0.014667963609099388,
      -0.014689059928059578,
      0.02519904263317585,
      -0.011682823300361633,
      -0.027939587831497192,
      0.0009936464484781027,
      0.05089746415615082,
      -0.013965526595711708,
      0.037672676146030426,
      0.014960452914237976,
      -0.029150817543268204,
      0.032505203038454056,
      -0.005789248272776604,
      -0.017916420474648476,
      0.03278065100312233,
      -0.0005924812867306173,
      -0.018941862508654594,
      0.02265975996851921,
      0.006157080642879009,
      0.0366886705160141,
      -0.03521541878581047,
      -0.014841166324913502,
      0.012066571973264217,
      -0.001761901774443686,
      -0.02855946496129036,
      0.04126163199543953,
      0.02543015405535698,
      0.03486894816160202,
      -0.010499545373022556,
      -0.03839626535773277,
      0.010483506135642529,
      -0.013499338179826736,
      -0.019218727946281433,
      0.0331786572933197,
      0.021424999460577965,
      0.035296812653541565,
      -0.020272094756364822,
      0.029365170747041702,
      -0.004685640800744295,
      -0.010712146759033203,
      -0.009571319445967674,
      0.020954405888915062,
      -0.005794614553451538,
      -0.007225438021123409,
      0.02134120650589466,
      -0.003018908901140094
    ],
    [
      -0.003764830529689789,
      0.0075912754982709885,
      -0.025919530540704727,
      -0.027879448607563972,
      -0.07462798058986664,
      0.0061957212164998055,
      0.07589270174503326,
      0.04320911690592766,
      0.022438738495111465,
      -0.0241298358887434,
      0.003272798378020525,
      0.024923451244831085,
      0.03646402806043625,
      -0.009504242800176144,
      -0.017838219180703163,
      -0.005049416795372963,
      0.0026035713963210583,
      -0.04097987338900566,
      0.0482768639922142,
      -0.008974147029221058,
      -0.016633180901408195,
      0.025471139699220657,
      0.048458296805620193,
      -0.018443012610077858,
      0.022827986627817154,
      0.012134297750890255,
      0.011705619283020496,
      -0.022165408357977867,
      -0.00137300172355026,
      -0.013952516950666904,
      -0.028919391334056854,
      -0.012224194593727589,
      -0.01527437474578619,
      0.012287970632314682,
      0.017656713724136353,
      -0.024015437811613083,
      -0.027232680469751358,
      0.018658215180039406,
      -0.0018804543651640415,
      0.00958607904613018,
      0.0324111171066761,
      -0.004650578834116459,
      -0.0077323936857283115,
      0.024426717311143875,
      0.024263175204396248,
      -0.0015770158497616649,
      0.05444188043475151,
      -0.051545824855566025,
      -0.020668644458055496,
      0.023232748731970787,
      -0.015664411708712578,
      -0.01508568786084652,
      -0.02587934210896492,
      0.009614299051463604,
      -0.025510326027870178,
      0.010571864433586597,
      -0.03697611391544342,
      0.005745738744735718,
      0.028132351115345955,
      0.0026379988994449377,
      -0.039467934519052505,
      0.04172949120402336,
      -0.032228995114564896,
      -0.008242634125053883
    ],
    [
      0.0030806041322648525,
      0.007944720797240734,
      0.017255593091249466,
      0.01121636014431715,
      0.034532032907009125,
      0.005285859573632479,
      -0.020962871611118317,
      -0.006477999500930309,
      0.013528158888220787,
      -0.017708707600831985,
      0.0022898742463439703,
      -0.006498240865767002,
      -0.021673697978258133,
      -0.02353747934103012,
      0.012803853489458561,
      0.032077763229608536,
      -0.015718821436166763,
      0.01613958552479744,
      -0.01047904696315527,
      -0.02612330950796604,
      -0.020295467227697372,
      0.022692643105983734,
      0.04928901046514511,
      0.010030597448348999,
      0.03998253494501114,
      -0.008727372623980045,
      -0.01669226586818695,
      0.009112219326198101,
      0.03091084398329258,
      -0.022447938099503517,
      -0.017489459365606308,
      0.003189805196598172,
      0.009130774065852165,
      0.01863044686615467,
      -0.010653852485120296,
      -0.027827909216284752,
      0.019865181297063828,
      0.019986268132925034,
      0.027255136519670486,
      0.0040260180830955505,
      0.009372198022902012,
      -0.02925054170191288,
      0.0012215398019179702,
      -0.00015214788436423987,
      0.0012582457857206464,
      -0.007529066875576973,
      -0.00791038665920496,
      0.022844498977065086,
      0.016116272658109665,
      -0.020789779722690582,
      -0.023146219551563263,
      0.003055274486541748,
      0.015469860285520554,
      -0.0023465098347514868,
      0.02071060612797737,
      -0.021235885098576546,
      -0.0022851217072457075,
      0.008305154740810394,
      0.015023592859506607,
      0.000861759705003351,
      0.017379987984895706,
      0.015722131356596947,
      0.007993493229150772,
      0.024448370561003685
    ],
    [
      -0.013603796251118183,
      -0.036765530705451965,
      0.042288195341825485,
      0.007215071003884077,
      0.05632944405078888,
      -0.008728770539164543,
      -0.049867402762174606,
      -0.014412601478397846,
      0.012815570458769798,
      -0.032206784933805466,
      0.028949717059731483,
      -0.048853274434804916,
      -0.01589345559477806,
      -0.023358279839158058,
      -0.03138681501150131,
      0.020408131182193756,
      0.016903743147850037,
      -0.0050543020479381084,
      -0.046296123415231705,
      -0.001606105943210423,
      -0.01025574840605259,
      -0.013628696091473103,
      -0.021609729155898094,
      0.02138916589319706,
      0.019433120265603065,
      -0.009015519171953201,
      0.008583730086684227,
      -0.03506689518690109,
      0.042117178440093994,
      -0.028541872277855873,
      0.012431339360773563,
      -0.05304783955216408,
      0.002793297404423356,
      0.00829609576612711,
      -0.024150537326931953,
      -0.020701589062809944,
      0.014221064746379852,
      0.0217746514827013,
      0.024826975539326668,
      0.03990280628204346,
      0.02693876065313816,
      0.035196028649806976,
      -0.014353899285197258,
      0.017699826508760452,
      0.024727800861001015,
      -0.02541464939713478,
      0.014300022274255753,
      -0.04915262386202812,
      0.0021449849009513855,
      -0.003244325751438737,
      -0.025121748447418213,
      0.04024961590766907,
      -0.01643504574894905,
      0.0010640716645866632,
      0.03803514316678047,
      0.025734098628163338,
      -0.015018360689282417,
      -0.01142533216625452,
      -0.01486562192440033,
      0.023828599601984024,
      -0.01416008360683918,
      0.017888519912958145,
      0.022730940952897072,
      0.013816430233418941
    ],
    [
      0.024502737447619438,
      -0.023746520280838013,
      -0.009935234673321247,
      -0.024251341819763184,
      -0.014675626531243324,
      -0.001199522870592773,
      -0.019120341166853905,
      0.044496599584817886,
      0.02312820963561535,
      -0.05613523721694946,
      0.025202298536896706,
      0.02114221267402172,
      0.02878214232623577,
      -0.011497761122882366,
      -0.008920046500861645,
      0.0020862407982349396,
      0.0012824723962694407,
      0.04064663127064705,
      0.05380652844905853,
      -0.03617364913225174,
      0.002079180208966136,
      0.03257862105965614,
      -0.01631329022347927,
      0.04262552782893181,
      -2.1052082956884988e-05,
      0.004932767245918512,
      0.004394386895000935,
      0.010299715213477612,
      0.012477528303861618,
      0.0062981112860143185,
      -0.03681832179427147,
      -0.03498794138431549,
      -0.011414417065680027,
      0.04332972317934036,
      -0.029177550226449966,
      -0.009307434782385826,
      -0.012994512915611267,
      0.02676139958202839,
      0.02249954640865326,
      0.00024268554989248514,
      -0.015725040808320045,
      0.011939180083572865,
      -0.011897425167262554,
      -0.003784274449571967,
      -0.013037553057074547,
      -0.009056567214429379,
      -0.018567008897662163,
      -0.01569131761789322,
      0.004138598684221506,
      0.007781272754073143,
      -0.04054706543684006,
      -0.005492501426488161,
      -0.04847485572099686,
      -0.014122787863016129,
      -0.01849416270852089,
      0.0193540770560503,
      -0.05633338913321495,
      0.010853906162083149,
      -0.03838098794221878,
      -0.0031243632547557354,
      0.040933236479759216,
      0.01934734731912613,
      -0.05918692424893379,
      0.034354932606220245
    ],
    [
      -0.02841099537909031,
      0.010642636567354202,
      -0.023784488439559937,
      0.004370755981653929,
      0.004644623026251793,
      -0.006481471471488476,
      0.012920187786221504,
      0.03371153771877289,
      -0.0061456891708076,
      -0.042253248393535614,
      0.021989578381180763,
      -0.016094518825411797,
      0.03980208560824394,
      -0.022256357595324516,
      0.028698483482003212,
      0.003528828965499997,
      0.03963746502995491,
      0.02176298201084137,
      0.033869195729494095,
      -0.012460710480809212,
      0.013551010750234127,
      0.002172332489863038,
      -0.003781063249334693,
      -0.020035026594996452,
      -0.022814782336354256,
      -0.019231414422392845,
      0.0009957152651622891,
      0.014235816895961761,
      0.03210107609629631,
      0.000766499200835824,
      -0.03517598658800125,
      0.013103941455483437,
      -0.03363897278904915,
      0.011278131045401096,
      0.019006427377462387,
      0.02403797022998333,
      -0.022929804399609566,
      -0.031207893043756485,
      0.02693253383040428,
      0.0040267957374453545,
      -0.034120868891477585,
      -0.0026801738422363997,
      0.011771664954721928,
      0.03039615973830223,
      -0.018205992877483368,
      0.024003608152270317,
      -0.04364723712205887,
      0.027035189792513847,
      0.01448394637554884,
      0.03760746121406555,
      0.02834279276430607,
      -0.05033835396170616,
      0.04537905380129814,
      -0.017976708710193634,
      -0.036271221935749054,
      0.008679181337356567,
      -0.006803542375564575,
      0.02851695381104946,
      0.0183509960770607,
      -0.011014161631464958,
      0.0075317686423659325,
      -0.03176358714699745,
      -0.025680137798190117,
      -0.03635627031326294
    ],
    [
      0.03458110988140106,
      -0.011507033370435238,
      0.028133029118180275,
      -0.017601773142814636,
      -0.007602964993566275,
      0.0005945167504251003,
      -0.011867694556713104,
      0.01842408813536167,
      -0.03234191983938217,
      -0.006725819781422615,
      0.03251100704073906,
      -0.031237350776791573,
      -0.061566296964883804,
      -0.02894057147204876,
      0.01986919529736042,
      0.0181477889418602,
      -0.00880874041467905,
      -0.009838894009590149,
      0.015449505299329758,
      0.025086037814617157,
      0.007160878740251064,
      -0.019309725612401962,
      0.015374606475234032,
      0.032299406826496124,
      0.01812327280640602,
      0.0028655582573264837,
      -0.01319393515586853,
      5.351146683096886e-06,
      0.002173745073378086,
      0.022012721747159958,
      -0.021036678925156593,
      -0.0035874408204108477,
      0.01581842266023159,
      0.016375891864299774,
      -0.04502544924616814,
      -0.017772147431969643,
      0.03195108845829964,
      0.014266738668084145,
      -0.020543308928608894,
      0.0062452335841953754,
      0.02270524576306343,
      -0.020999765023589134,
      -0.019655458629131317,
      0.01266015786677599,
      0.022407103329896927,
      -0.0046819159761071205,
      -0.041412558406591415,
      -0.013250808231532574,
      0.019700512290000916,
      -0.008717081509530544,
      -0.04230692610144615,
      -0.022207219153642654,
      -0.005369288381189108,
      -0.007969768717885017,
      0.011486836709082127,
      0.024206101894378662,
      -0.023317405954003334,
      -0.00641616340726614,
      0.016448618844151497,
      0.012228941544890404,
      0.023616963997483253,
      0.00024450913770124316,
      -0.02518698200583458,
      0.042466070502996445
    ],
    [
      0.03318171203136444,
      -0.009095564484596252,
      -0.0004071268776897341,
      -0.017820101231336594,
      0.0015055774711072445,
      0.0024496670812368393,
      -0.007201438304036856,
      0.014197553507983685,
      0.02794399857521057,
      -0.001923122676089406,
      -0.0034715686924755573,
      0.021963603794574738,
      0.00024063947785180062,
      -0.014496758580207825,
      0.03255818784236908,
      -0.013232204131782055,
      0.011933968402445316,
      -0.007063320372253656,
      0.025434456765651703,
      -0.031121129170060158,
      0.022036196663975716,
      0.03269117698073387,
      -0.0045858109369874,
      0.007192655466496944,
      0.014617567881941795,
      -0.02194860763847828,
      -0.014803013764321804,
      0.004541486036032438,
      -0.030520690605044365,
      0.017083704471588135,
      -0.014675059355795383,
      -0.0021606641821563244,
      -0.03029402531683445,
      -0.018505804240703583,
      -0.00923930387943983,
      -0.032765332609415054,
      0.03733856976032257,
      0.039798837155103683,
      -0.002463303506374359,
      0.04920990392565727,
      0.04103999584913254,
      -0.007228760980069637,
      -0.0021096281707286835,
      -0.023826738819479942,
      0.036114651709795,
      0.00996590405702591,
      0.013261835090816021,
      -0.022846445441246033,
      0.014815018512308598,
      0.017862262204289436,
      -0.020417578518390656,
      -0.00042565976036712527,
      -0.02755141071975231,
      -0.004887627903372049,
      -0.03671031445264816,
      0.03427095338702202,
      -0.0042163170874118805,
      -0.016691559925675392,
      -0.005781497806310654,
      -0.03171101585030556,
      -0.018638713285326958,
      -0.01739680767059326,
      0.00020879419753327966,
      0.0121720340102911
    ],
    [
      0.015478570014238358,
      0.02552039735019207,
      -0.05084056779742241,
      0.022767502814531326,
      0.029155375435948372,
      -0.027688052505254745,
      -0.024313416332006454,
      0.006503412500023842,
      -0.01380891539156437,
      0.018257008865475655,
      0.02496974915266037,
      0.006851387210190296,
      -0.06641847640275955,
      0.023349732160568237,
      0.01755954511463642,
      -0.01203279010951519,
      0.004339070059359074,
      0.04308445006608963,
      0.008161671459674835,
      -0.03624172881245613,
      0.01966562494635582,
      -0.003895754227414727,
      -0.03728904947638512,
      1.8979877495439723e-05,
      -0.006314324215054512,
      0.0026672156527638435,
      -0.02259165421128273,
      0.01855190098285675,
      0.029355032369494438,
      -0.009264255873858929,
      0.019137226045131683,
      0.02341814711689949,
      -0.019223710522055626,
      -0.037219855934381485,
      0.008718963712453842,
      0.011478239670395851,
      -0.039249785244464874,
      -0.001187078538350761,
      0.0005837296484969556,
      0.02594684064388275,
      -0.0332268588244915,
      -0.02994653955101967,
      0.021717317402362823,
      -0.005603590980172157,
      0.030039934441447258,
      0.02104562520980835,
      -0.014793512411415577,
      0.02965300902724266,
      -0.00250513874925673,
      0.015602892264723778,
      0.019242772832512856,
      -0.005823273211717606,
      0.00775593938305974,
      -0.04087613523006439,
      0.04361069202423096,
      -0.03287670016288757,
      0.03474438935518265,
      -0.021878207102417946,
      -0.029691606760025024,
      -0.014294146560132504,
      -0.008120007812976837,
      -0.018036093562841415,
      -0.01583990454673767,
      -0.017200833186507225
    ],
    [
      -0.013771535828709602,
      0.037388574331998825,
      0.019184526056051254,
      0.02366732805967331,
      0.02346714213490486,
      -0.01588604412972927,
      -0.005240140948444605,
      0.007049038540571928,
      -0.016581501811742783,
      0.0037247841246426105,
      0.008332960307598114,
      -0.03507423400878906,
      0.021959884092211723,
      0.020035961642861366,
      -0.019253090023994446,
      -0.03406059741973877,
      -0.007099041249603033,
      0.021436909213662148,
      0.0075528621673583984,
      -0.015516703017055988,
      -0.01975053921341896,
      -0.03886474668979645,
      -0.011579436250030994,
      -0.007639463525265455,
      -0.02808920107781887,
      0.02693653479218483,
      0.00102846953086555,
      -0.028944654390215874,
      -0.005187769886106253,
      0.011041990481317043,
      0.011371162720024586,
      0.03890933841466904,
      -0.010999644175171852,
      0.03402174636721611,
      0.005613476037979126,
      0.022305715829133987,
      -0.04413733258843422,
      -0.01730174943804741,
      -0.0021479735150933266,
      -0.01178961805999279,
      -0.03514888137578964,
      -0.026339806616306305,
      0.015111586079001427,
      0.005307460203766823,
      0.008146393112838268,
      -0.04217031970620155,
      -0.031296856701374054,
      0.01741536520421505,
      -0.025989310815930367,
      -0.0020217574201524258,
      0.026089990511536598,
      0.007867982611060143,
      0.020986732095479965,
      -0.01559764426201582,
      0.02546362578868866,
      -0.003182628657668829,
      -0.009783749468624592,
      0.0454520583152771,
      0.005542001221328974,
      -0.016458900645375252,
      -0.004944902379065752,
      -0.011416485533118248,
      -0.014064749702811241,
      -0.013491668738424778
    ],
    [
      -0.04114477336406708,
      -0.0022434238344430923,
      -0.04839762672781944,
      0.010605357587337494,
      0.013712120242416859,
      -0.00449104979634285,
      -0.02238207682967186,
      -0.028730997815728188,
      -0.018812179565429688,
      0.038494959473609924,
      -0.005811598617583513,
      -0.03849522024393082,
      -0.022370457649230957,
      0.017702728509902954,
      -0.015518409200012684,
      0.04179099574685097,
      0.031515587121248245,
      -0.006738956551998854,
      -0.02729295939207077,
      0.01432035118341446,
      0.04506445303559303,
      -0.034234385937452316,
      -0.0286757480353117,
      0.008692597039043903,
      0.00029315322171896696,
      -0.042032722383737564,
      0.0027433305513113737,
      -0.0011250046081840992,
      -0.03313072770833969,
      -0.010457419790327549,
      -0.021630093455314636,
      -0.01086327712982893,
      0.02452380582690239,
      -0.04506494849920273,
      0.0011757981264963746,
      0.019174356013536453,
      0.011788878589868546,
      0.05088614299893379,
      -0.037330545485019684,
      0.03218861669301987,
      0.006261540576815605,
      -0.026669390499591827,
      -0.009518273174762726,
      0.010490862652659416,
      0.03273151069879532,
      0.02064753696322441,
      0.006262709386646748,
      0.00924740731716156,
      0.03177058324217796,
      0.025726933032274246,
      0.018382834270596504,
      -0.03755657747387886,
      0.002812898950651288,
      0.04374205693602562,
      -0.04812229424715042,
      -0.04234829172492027,
      0.05348804220557213,
      -0.03678261116147041,
      -0.005039884243160486,
      -0.0012523576151579618,
      0.0407530851662159,
      -0.017675768584012985,
      0.027322547510266304,
      -0.03213972970843315
    ],
    [
      0.002559331711381674,
      0.03837680444121361,
      -0.019970890134572983,
      0.013786344788968563,
      0.022979462519288063,
      -0.03806458041071892,
      -0.019349541515111923,
      -0.005105880554765463,
      -0.013661700300872326,
      -0.03462257981300354,
      -0.015716971829533577,
      -0.027012335136532784,
      0.022284286096692085,
      -0.015367654152214527,
      0.00891449861228466,
      -0.03323104605078697,
      -0.005210505798459053,
      0.012104403227567673,
      -0.003946351818740368,
      -0.027726393193006516,
      0.0002016909420490265,
      0.004094918258488178,
      -0.010281371884047985,
      -0.023828556761145592,
      0.002600552048534155,
      0.04581065475940704,
      -0.025350751355290413,
      0.001133616897277534,
      -0.022161729633808136,
      -0.029912035912275314,
      -0.013205936178565025,
      0.03271012753248215,
      -0.013743091374635696,
      -0.015527606010437012,
      0.027174722403287888,
      0.011060250923037529,
      -0.007350496016442776,
      0.025622786954045296,
      -0.01813179813325405,
      0.020589105784893036,
      0.00812395941466093,
      -0.0207107812166214,
      0.029603581875562668,
      0.004218193236738443,
      -0.03167743608355522,
      -0.004188514314591885,
      0.004908066242933273,
